# Model Metadata
input_dim: 2
hidden_layers: [55, 35, 20]
output_dim: 1
activations: ['tanh', 'sigmoid', 'sigmoid', 'linear']
biases: [True, True, True, True]
weight_init: random
learning_rate: 0.006490515516559375
momentum: 0.7
loss_function: mse
huber_delta: 1.5
lr_decay_rate: 0.985

# Weights
# Layer 0 weights: shape (55, 3)
-9.723093108944211860e-01 -8.450192262442012270e-01 -2.915295690011509566e-01
1.609226043851728294e+00 -4.929146620841117626e-02 3.141402174224378063e-01
2.336770353531654187e+00 -6.158487495497066977e-01 -4.482319722057448441e-01
1.454960734472631856e+00 2.829801238131193428e-02 2.500019730053762324e+00
-1.489076523974620869e+00 -2.506384650133143266e-01 1.546284980475271409e+00
1.569524924882281125e+00 1.153698600428344267e+00 -1.585572079900114728e+00
-1.518541386777996882e+00 1.145760617493033706e+00 1.045128164754389744e+00
5.998235958754237658e-03 1.874811117859632059e+00 -7.950248513001780815e-01
-6.352470274253010918e-02 2.507209443640963986e+00 -2.844887598821255192e+00
9.136530263016970910e-01 -3.541336186649133300e-01 5.782839062995358548e-01
1.301906281763550721e+00 -1.688872731601181343e+00 3.642393614198951527e-03
-5.481753986425671465e-01 2.647284350546734721e-01 -5.179115365738600207e-01
-1.417785090330246023e+00 -3.284980495811541390e-01 1.787593524276918089e+00
-2.907243621362203267e-01 -2.212737238106326221e-01 -1.481596783481404778e+00
1.421854183982425246e+00 -4.059156835631229088e-01 5.174069093855698798e-01
1.774337485740390852e+00 3.710719522279872229e-01 -1.733553031234766229e+00
5.398479614794574749e-02 2.617230447186976242e-02 1.252448736638430482e+00
1.606647753067532158e-01 1.803308119397290632e+00 -1.722211335220498116e-02
-2.460568620607135049e-01 -2.773737241646907936e+00 -1.267419521768164081e+00
-2.217239457764894173e+00 -2.377564628752181886e+00 8.208724806166356469e-02
1.122333539099241495e+00 -9.035510916509206236e-01 -1.412218524834374822e+00
1.350677400935513806e+00 1.113736013492954813e+00 1.154668061971372284e+00
-8.604660000656884078e-01 -2.976350637557297230e+00 -2.169560664533567718e-01
-1.086680141742406153e-01 -8.794270853011258715e-02 -1.531312120539182198e+00
-1.230326304778206259e+00 7.398714964054198262e-02 1.162852337812065429e+00
-9.596151577326661464e-02 -1.849826441808398725e-01 1.635587729715242578e+00
2.640025026654715390e+00 8.177023129059766138e-01 1.138999075962530139e+00
-2.377155422437136900e-01 -9.832305804350144340e-01 -2.027162196819582984e+00
-1.044944513455136281e+00 2.907435805541268570e-01 -9.290267968132021048e-01
-1.901794675367355136e+00 4.192237618417702372e-01 1.324138406462191941e+00
-1.464746760791008073e+00 1.542052740484517681e+00 1.503424258269493885e+00
-8.022088560391925638e-01 1.552878080936730409e+00 -6.213402086505680488e-01
-1.615883774774204973e+00 9.183098599260277606e-01 9.036824025687738571e-01
1.243766908776259728e+00 7.119519764594147704e-01 6.944170697245009016e-01
-1.478781473932159196e-01 -1.145551484100618911e+00 1.282407623493275306e+00
1.838130358711768331e+00 -2.258871004956334083e+00 1.717278321752833126e-01
-9.455338680411675689e-01 -2.395592951605173049e+00 1.045892797575006306e+00
-1.243243800686160583e+00 -3.135922041562950735e+00 -1.243157592223993024e+00
-7.228536384133962267e-01 -2.275803119067465463e+00 1.156407886993134349e-01
9.210837171319640193e-01 -3.425282816097595662e-01 -3.940227647759785290e-01
1.477441464026965967e+00 -6.653279304805138628e-01 3.271140148986117158e+00
6.536905591780559632e-01 -1.529217172461309060e+00 1.699265105554100819e+00
-1.084891542884316662e+00 5.796805971800740309e-01 1.981056620055280160e+00
6.875589293088416598e-01 -1.405246976203336828e+00 -9.032207611051552842e-02
2.546915922610391014e+00 1.244034143777514867e+00 1.219470060608496498e+00
-2.150560943574827966e-02 1.267326075911793026e+00 9.197425521974444962e-01
1.218486670489237644e+00 1.416666612821172233e+00 -1.025065130103411937e+00
2.352707487205102366e-02 -8.893215104316293251e-01 -2.981493376478266399e-01
-2.539834246129451856e+00 -2.277756634580925532e-02 -2.284703945520556001e+00
1.970129635425284409e+00 5.526109871927630257e-01 -1.225343702461508144e+00
-2.000949995977944873e+00 -2.032316076750569689e+00 -1.470377931006942029e+00
3.394778642501612431e-01 2.369402619406480781e+00 -1.413187394380506001e+00
-3.263318428574530916e+00 -7.956438998739719937e-01 1.129659237581835285e+00
2.192930161872336026e+00 -3.106153225105239724e+00 1.135709188931558256e+00
-1.901635937030156098e+00 -1.569950888630827990e+00 -1.904442159635296061e+00

# Layer 1 weights: shape (35, 56)
2.575707052329767044e-01 6.329125048380292995e-01 -1.451966146188126139e+00 -2.937710829540842172e-01 -2.467912288590976833e-01 -3.010623460808825036e-01 8.643980913756954543e-01 -5.674593300695602860e-01 1.273213744598145292e+00 -1.200239164910115869e-01 2.356856912747679056e-01 -7.102254934713324586e-01 -6.934042394245817365e-01 1.105772805096905786e+00 8.513045818394120168e-02 -1.303465738455003242e+00 -1.170971927537781641e-03 2.273662358832159391e+00 -1.237963346314975219e-02 -1.151449308823337264e-02 8.174735448716945185e-02 3.814135893307856739e-01 1.052023524920336461e+00 1.178771349261723334e+00 2.662364554959207874e-01 1.173705154688402308e+00 2.064156819134765342e-01 1.150095505471821822e+00 1.052919656738263487e+00 1.722063214118054963e+00 2.608768914824231011e+00 4.717595048303683813e-01 2.349430736322989599e+00 -2.484215652981330846e-01 -1.419319411917671914e-01 6.369885732059775707e-01 1.113725309696505184e+00 -1.069904746236429727e+00 -1.514000545877909054e-01 -1.841334787752981761e-01 -9.690921759131002622e-01 -3.649366091440706672e-01 8.209929924268548774e-04 -7.592373924326567547e-02 1.674444365646273747e+00 -1.440426417240860069e+00 -1.610564190375950167e-01 2.585750268239757066e-01 -5.422185551132913117e-01 -2.761651278001429510e+00 7.594298034893531835e-01 -1.257847549241297047e+00 1.189448135686191454e+00 1.511053892650423336e+00 -1.481336417079835543e+00 5.848262442507328185e-01
2.293949103798338829e+00 1.058673886590533630e+00 3.579137762777481746e-01 -1.871876996006654803e+00 -4.600417558787008865e-01 4.788361702529286279e-01 3.790966920385676620e-01 -4.171763692578714378e-01 2.075392981084720478e-01 9.911094419598647232e-01 3.622689015733975282e-01 -2.045660821024810894e-01 1.265626691143329818e+00 -1.271034760010666120e-01 1.934481217661063068e+00 6.979560298245248706e-01 1.194272292066891117e+00 -8.174881077093192339e-01 -5.378353354524864072e-01 -5.578173955249522420e-01 1.142563147664955731e-01 8.061018516462882255e-01 4.476942073270100964e-01 -2.024966929922056014e-01 -7.149463608831181372e-01 2.632392780382882158e+00 6.063184598336768261e-01 -1.081302804887906754e+00 -1.256123040920336331e+00 1.275947865447312646e+00 1.567675199143114539e-01 -4.612785429258004499e-01 1.020413263463423981e+00 1.074226616013802982e+00 3.454426380407881747e-01 -7.942252647916595576e-01 -1.963703530815506526e-01 -7.648878048544972552e-01 1.286176139232821924e+00 2.946874178847207482e+00 -2.371170073739901074e-01 1.195421866514079001e+00 5.502949246814508033e-01 1.207139970875270807e+00 6.207018233096857074e-01 -1.179056433890790512e-01 7.606903363976228460e-01 5.746755995021791685e-01 4.851602848891259923e-01 -3.537521179524637516e-01 1.300925070691126395e+00 -9.913327947225331060e-01 -7.483043456509747005e-01 1.143905756244249838e+00 -6.764041619490412938e-01 5.714388944612212029e-01
3.925434471502469713e-01 5.730727672695280495e-01 1.070154351491645395e+00 4.422279751385946311e-01 6.087823051380412132e-01 -2.475268839915255592e-01 -8.993420789724969611e-01 -2.896634263729886971e-01 8.664529226336582513e-01 -1.396628548030802053e+00 -1.433030603237416267e+00 7.652481289180594892e-01 1.834653766606630099e-01 -8.216409576400174331e-01 3.034355348560673418e-02 -4.578951721126690577e-01 -1.728408210087216235e+00 -5.940180608069050017e-01 -7.706761772070798155e-01 2.627078310228540214e+00 -7.609459700816678662e-01 -6.251967226509552722e-02 4.984262589646039632e-01 2.387482300671749103e-01 3.478497981994009836e-01 -3.672692301872445553e-01 -1.336701049132390073e+00 1.642326420247585128e+00 6.850348880062218093e-02 -7.586191720772342828e-01 1.906633497968923674e+00 -2.333396773975948413e-01 -9.931662723627839862e-01 3.890732096579936350e-01 5.636116756088208612e-01 3.775584616491449719e-01 2.134737877181837051e-01 5.815770353207895260e-01 1.073434704804820949e+00 2.239750199275662712e-01 -7.311650502813661356e-01 -2.338434374460357290e+00 2.312563813490655373e-01 9.174635117732213851e-01 -7.535096884300800379e-01 1.307462467697606545e+00 -4.503022469461423483e-01 -6.030104542863866657e-01 -3.456124475609898550e-01 7.921164631302661796e-01 2.521717084504054296e-01 1.514636941371133805e+00 2.898674188067641988e-01 -1.490419414803576537e+00 -2.505604311568550457e+00 -1.462086738261771046e+00
-7.416825519361107677e-01 -1.528348130829605633e+00 3.992022466541569892e-01 -1.300658953986581823e+00 6.933472612528592816e-01 1.662910998454723899e+00 -2.371810299744282258e+00 -2.329421650996504056e-01 -1.060930747841998478e+00 1.237786565128099481e+00 2.169501375163632062e+00 5.510169653233952802e-01 -7.215220108655580056e-01 3.400887879267730507e-01 3.503285099092807164e-01 -1.379241565173933814e+00 5.499400697852422359e-01 8.895182196293239807e-01 -4.485786323485226323e-01 4.246866085916708999e-01 1.277866282378912643e+00 -4.525478434094113989e-01 1.878687160927988042e+00 -3.073087516995208768e-01 -2.605755313754090086e-01 1.266548336798725360e+00 5.951170802047992536e-01 -7.142558883861716001e-01 1.994160568677993739e+00 -1.815665862147133991e+00 -1.707686295891877037e+00 -7.421511979047961116e-01 1.982683057130601723e-01 -1.099702846458634919e+00 -4.902816165642616686e-01 1.089331168340418765e+00 2.468293465556780308e+00 -1.639951725414598327e+00 4.950825099491098363e-02 2.374023403218424644e+00 -5.713460010635093012e-01 2.865913248158670767e-01 -9.843337330790594697e-01 2.175541088239237118e-03 -9.390750112221062373e-01 1.061822967700453146e+00 4.092222573599044178e-02 -7.855318330144076544e-01 1.341212810867102589e-01 1.428266603544569302e-01 1.454977276285921162e-01 -2.392858172796745800e-02 -4.845207404973886356e-01 -2.932980663839919178e-01 2.705663369259405093e-01 8.413305824864106275e-02
-5.547241120856952201e-02 -4.275672939803193927e-03 8.487218801866036610e-01 5.453609337601601492e-01 -8.450244123718784195e-01 2.110482870039682268e+00 -1.355286589342372006e+00 -7.121646485174027985e-01 9.901268294178876550e-01 -6.479588706774151996e-01 1.549401948467665990e+00 -1.138324261534401138e+00 -7.764861389410822046e-01 9.820626939219320173e-01 4.579312592351388878e-01 1.205931301842010139e+00 -2.346748361427878349e-01 1.910915864503591743e+00 9.210244375367700187e-02 -1.142738811433509499e-01 -3.773654829698092072e-01 1.093986822400332404e+00 8.027637822469678719e-01 -6.622750017364873454e-01 3.002325735353574276e-01 -6.821901148111235436e-02 -1.121599522573849983e+00 5.816593891869284993e-01 -2.178369068122759433e+00 -9.657002753605440359e-01 -4.774441229586104951e-01 -2.422376634988330502e-01 -5.334442643656959193e-01 1.522904812134086239e+00 1.147558184132253079e+00 4.970104765828890492e-01 3.735720745947724436e-02 1.439503514910702942e+00 1.198859357518986535e+00 1.864107757013558686e+00 -1.551097164366372072e-01 -1.095603235159767319e+00 -7.499503546550886357e-01 -6.572873052456315035e-01 4.866489738990066871e-01 -1.801956639532801274e-01 9.913777547522724110e-01 -1.009191381510506247e+00 -5.453332615210141343e-01 2.624481572060676005e+00 2.123581051443615753e+00 -3.891126786886786593e-01 1.174920279314893845e+00 -2.065112789789223857e+00 8.018829185187377473e-02 2.125354568846073711e-01
1.042856702883534215e-01 -1.830575674961375743e+00 2.693448102191811078e+00 -2.421521892742729554e-01 -1.227518335081124956e+00 2.064532808866469671e-01 -6.404606700119329643e-01 6.049811633012524004e-01 6.190615729925994515e-01 2.189238526080867775e+00 1.483574935377639514e+00 1.349875229860406867e+00 -6.643464221477826115e-01 1.005041750567950309e+00 1.844035544080659950e-01 1.867190307632000223e+00 -3.019413938145520504e+00 9.266519940855151294e-01 3.626218910879677182e-01 -5.263038987217507625e-01 3.057094511959249084e-01 1.388388894727424328e+00 2.706653863143808625e-01 -4.896640529539215136e-01 5.961764717222491905e-01 2.154841289763901990e+00 2.576439786582581173e-02 -4.980107709241226033e-01 8.563058732299506648e-01 5.745624431762557105e-01 -9.632414262529107596e-01 -4.297571755021354356e-01 -8.095068757360361911e-01 2.610075056869562982e+00 2.193928777017671194e+00 2.113767589090357113e+00 1.107591456374421801e+00 -1.558950284603802805e+00 -9.009712393331410496e-01 1.244943249149347564e-01 -4.490169677871360676e-01 1.873966303672994327e+00 -1.469468492084004207e+00 5.833405009275345332e-01 1.126986502491325481e+00 1.387783289249602259e+00 7.364152504072464245e-01 1.691251198187399829e-01 -1.972451415993186907e-01 -3.447804842068997733e-01 -8.760468847362027356e-01 -4.378228209041649666e-01 -1.245020239464923906e+00 -2.090686416198981601e-01 -1.397070147830079823e-01 2.971733647633049702e-01
-5.754543564114918824e-02 3.422412629243157811e-01 5.257087877980243240e-01 -3.019943349627480789e-01 -9.214734544538918382e-01 7.662836733432173419e-01 9.936749751867366420e-01 -8.843012607348570420e-01 1.642758850870448706e+00 1.486550546617600332e+00 1.014111360191545463e+00 -6.723371514617614286e-01 2.545391301764554082e-01 4.699335009334448809e-01 -1.574404867976595956e-01 -7.152675793644919233e-02 -3.807754434108884256e-01 -1.496215379933764522e+00 3.644386871463288213e-01 2.066464202938924910e-01 -7.015226400738554524e-01 8.948394435474013031e-01 -6.867635990896315823e-01 -1.230007226683407673e+00 2.138681897127495901e+00 3.885770239342649646e-01 5.707118491715920117e-01 -9.391886008963611365e-01 -1.331890406316714515e+00 2.926140182118273647e-01 -3.961019466954019408e-01 -6.821168603262642849e-01 1.359436855564589708e+00 6.996930772189774439e-01 1.267721604130313651e+00 1.362014007536483717e+00 -8.897470826991710213e-01 1.654951441055864558e+00 -6.817410634676174253e-01 1.014267510026170216e+00 1.409302269191544443e+00 6.247781121898435819e-01 1.420441277097529875e+00 -2.607041279118753607e-01 7.112119068521322029e-01 -2.836992849521313698e-02 6.220927154555981886e-01 1.910209972809515877e+00 -2.341866833460917174e+00 1.346879512979880289e+00 -1.391145663233385399e+00 3.407504198856946553e-01 6.086792198854896752e-01 -5.490046074071356363e-01 1.515700144545713890e+00 -2.618650710437139262e-01
-1.458517615944458390e+00 -2.968213250364715172e+00 3.128534298353689569e-01 -1.510944720574594946e+00 -1.599086064566362264e+00 8.554962949803082695e-02 2.161783235065722342e-01 7.012543986719464995e-01 -5.110457713624024789e-01 -1.431139122390311158e+00 2.222380106533508926e+00 -1.545263837367535142e+00 5.143516182050509311e-01 -2.899108599410734066e-01 -5.463029007589624841e-01 -5.106687928724651382e-01 1.945411666370800430e-01 -6.609758082108690980e-01 1.874500355632329640e+00 -3.212829019389773499e+00 2.750840640485963107e-01 -7.303915851981709340e-01 -2.359380651882590496e-01 5.329705686355384886e-01 -2.315638667323648425e-01 -5.977984692556249646e-01 -1.027930912116969298e+00 -1.373037224344289653e+00 -6.506792109213406228e-01 8.859127354505598184e-01 1.179522932384454492e+00 -3.842353538698923821e-01 -3.302879912488306258e-01 7.542048034504308385e-01 -5.625683953710877150e-01 -1.905799132403647622e+00 7.649452819739683829e-01 2.898526879242596110e-01 8.693617068163014827e-02 -7.042802542899481155e-01 -1.929432498137143015e-01 1.838883994207823891e-01 3.482088035237754786e-01 -9.523425739376890908e-02 6.862541053328767848e-01 1.229662683122813904e+00 -8.198958881063191928e-01 7.220212414168798443e-01 5.220387723304270589e-01 8.026140495086683813e-02 2.827187753337440657e-01 3.452903796111606027e-01 -2.028014846554898609e-01 1.008331885943249961e+00 -9.431536361933595680e-01 8.147666589544484417e-01
-2.591387953379338804e-01 -3.701269091226646046e-01 -1.131574152493066032e+00 -5.018083447679592135e-01 -5.847280633293665542e-01 1.579467027149709990e+00 4.038368020084364685e-01 -7.786676283174814861e-01 -1.450337116870677567e+00 3.864928558271941705e-01 -6.322249645870068324e-01 -2.958342662813378543e-01 9.226141225047628236e-01 2.132200180274402002e-01 -4.572068766871816015e-02 7.492479253014596718e-01 -5.717871186957396157e-01 -1.371725958887780372e+00 4.515540038350474572e-01 8.656242345019881101e-01 1.588592605313803308e+00 -1.013884761667655177e+00 5.401672418776412021e-01 -1.640882205852245646e+00 1.204642713305622337e+00 -1.202802595402100883e+00 -2.288404370348743333e-01 -6.699912442449725836e-01 -6.993048758379980523e-01 1.004732993890456116e+00 3.171568716433833535e-01 -8.855035685586761796e-01 9.678499714179978897e-01 -2.219349772584815750e-01 4.649506795320049179e-02 -5.609538787540065963e-01 1.219960324397813434e+00 -7.352118717971050099e-01 8.213210110750071014e-01 -1.345045638678427746e+00 -1.308168019255228964e+00 8.669767236233526519e-01 9.286353437899285135e-01 -2.320333903297730593e+00 -1.347565132874428251e+00 -8.629641541452612863e-01 -5.181090468542691729e-01 -7.760867818705419197e-02 3.638066843599394584e-01 -3.767025876856049393e-01 1.408497459086465620e+00 -5.613757302545200334e-01 1.868673236029340767e+00 4.409569235136338028e-01 5.190131209890579411e-01 -1.404000625579902017e+00
-4.432956567335323839e-01 -3.169199687774579832e-01 -9.203907040543212181e-01 -3.935045638515749511e-01 -3.477149429661247071e-01 -1.735390310882724885e+00 -6.671626543147659572e-01 -1.517281882818368954e+00 6.740409361696303447e-01 1.730635365194641340e+00 -6.195600435603361156e-01 -4.091150724487431223e-01 5.094519715894398892e-01 -7.050186470639496772e-01 1.607289557916866229e+00 -9.906887464485837347e-01 2.284195314891816597e+00 -6.472867507845323498e-01 1.327276946353288301e+00 -5.083951000683076815e-01 7.211498615016871394e-01 2.582437592575110852e-01 1.343525858797890216e+00 1.714616010087876230e+00 1.795209825444898044e+00 1.652363684207927230e+00 -3.157005734452171253e-01 1.713914262691033086e+00 1.228827643398065605e+00 -6.024313343705405277e-01 -1.047125859580034568e+00 2.581546985091883961e+00 1.249266744552202990e+00 -5.476543500122973418e-01 2.399909079875281570e+00 -9.317598910010446156e-01 1.027502611429949697e+00 5.532382740343516625e-01 2.594283729698440677e+00 -1.284029366409161765e+00 -1.824908195215303675e+00 -9.367188444912971645e-01 1.091779437071935366e+00 -2.283017769812130671e-01 5.557778874329786234e-01 7.501928857937453232e-01 -3.768984949755218028e-01 -7.527257855305902190e-01 1.214896847434658200e+00 -8.100548665401495763e-01 2.927572445002468715e-01 1.644500743776553808e-01 -8.788158479862373529e-02 -1.334170370002628170e+00 -3.775922983504830799e-01 8.414638052976941562e-01
-1.151460555812865216e+00 5.001459460772418320e-01 9.235741112185313906e-01 1.226982014607506666e-01 -1.511619662332614134e+00 -4.071056139790211748e-01 9.151209162231026539e-01 -1.233989282276406030e+00 -9.663797296465823639e-01 3.667083302722934368e-01 -1.021241994397915409e+00 6.296183984160362845e-01 -3.350377788764845599e-01 -1.790389251784151314e+00 2.055169310099177249e+00 9.591500501576754045e-01 -1.688457586000860211e-01 -4.724722182836008644e-01 -5.579669167166345645e-01 5.240601005988947403e-01 8.935641960849094456e-01 1.656185934711876806e+00 7.325405881088840054e-01 -3.696193569352789615e-02 -1.680349860062160694e+00 3.545182617886681320e-01 1.643498208486529055e-01 -8.470264607695890957e-01 -1.464017995210749934e+00 6.866082373450321796e-02 3.489086674719618641e-01 -3.017737261461092557e-01 4.448394261429532426e-01 2.600426079360044773e-01 -8.928894708116990042e-01 -1.254868646148247890e+00 6.623807361312274988e-01 -1.195781470613181269e-01 1.117411312766905196e+00 2.230481670363140823e-01 1.019756776771729267e+00 6.898772894686219237e-01 1.046876995851694137e+00 9.749786498068093721e-01 9.676375896949435118e-01 -1.177172075494295478e-01 1.162102218668637166e+00 -6.706165165153747942e-01 2.478580291066840094e-02 -5.963039662335060109e-01 5.675654402940247811e-01 -5.890078298054162165e-01 1.360796843352794605e+00 3.020974571645121287e+00 -3.788842610031286640e-01 3.569341930597516588e-01
-7.222748658752412565e-01 -2.970868468115344108e-01 -7.024974655809629320e-02 -8.775696641352312977e-01 -5.683603602332013560e-01 2.944667175252424496e-01 -1.044847405035493004e+00 -1.688914803961234723e+00 9.892139564239945670e-01 6.902263824789558466e-01 -1.282132688143129196e+00 2.908118854649888618e+00 -3.610672502169427478e-01 -4.607059289494140342e-01 1.851368409334785303e+00 -9.801459936284934171e-01 -2.809213155674037399e-01 6.092386660028930034e-01 9.117721220207054555e-01 2.111242273073075659e-01 -9.010621478096119130e-01 6.548486461823685989e-01 -9.872548858302468977e-01 -3.428852583924291153e-01 -1.467931889461676409e+00 4.916191078455756647e-01 -1.722727275297536220e+00 7.026361279342171473e-01 4.195169009799118442e-01 5.354977370624505184e-01 -1.186402813661820892e-03 1.330573406372826950e-01 3.109850933656442273e-01 -5.123860662754750050e-01 -1.207849102629006355e+00 2.590591123018092801e-01 -9.020923603043438099e-01 -5.574857872838004935e-01 3.512387112785931437e-02 -2.506849398057532999e-02 -2.699182271128290900e+00 -1.550721265412959182e+00 9.823226356095196010e-01 7.052547072961966590e-01 1.387976695047238307e-01 -6.437145220691578018e-01 -1.771183616766200120e-01 -1.488098955170158222e+00 -6.870032295826226099e-01 -9.859063846915924190e-01 1.638758127394395414e+00 -6.189740272085553219e-01 -1.771483874021988481e+00 1.268045524677568592e+00 1.001041855657137880e+00 -1.442853890219540469e+00
-6.617440895711544924e-01 -3.953447533636566535e-01 -4.320150506708884675e-01 1.791982096803366398e+00 -1.130546700137649713e-01 2.640551084953894623e-02 -8.250190455185492100e-01 -2.042538397666902927e+00 -7.921184663885887378e-01 8.332555596221200012e-02 -2.726355717799929801e-01 -1.670855940476241752e+00 -1.191518958402558503e+00 -8.370305296418747432e-01 1.031965906328730975e+00 -1.054621045126934664e+00 1.397460418949482419e-01 5.412236545501550866e-01 -1.002953496799489919e-01 -2.561806444759851531e-01 -4.058216570553256353e-01 8.847612954492308779e-01 -1.113398365807194645e+00 4.415067159101396244e-01 1.067853612742745706e-01 -4.369395844623447100e-02 1.547231661712906714e+00 -2.046061621274160580e-01 -2.204558329115523796e-01 1.024009195037415942e+00 7.071040199092804013e-01 1.292413166409656977e+00 -1.323880602966936326e+00 1.422465215818153217e+00 1.242814316315548728e+00 2.475212695383098831e-03 4.395989399189367819e-01 -1.769341389390826080e-01 -5.955663373353645706e-01 -3.460583798683105616e-01 2.458910825463528571e+00 1.872308402590082410e-01 4.944347717627935179e-02 1.242274499743346361e+00 2.184779566768649539e-01 -4.230331962597707607e-01 -1.835701305291340402e-01 3.353186831853322558e-01 4.233796256380111811e-01 1.415850248683846235e+00 -1.209505636503082737e+00 -5.010333492986815962e-01 7.288834865107384209e-01 -7.457116348818492169e-01 -1.945950163684025291e+00 1.135801509668245224e+00
4.276115239581905203e-01 -1.424937782627268446e+00 -1.400383521883791053e-02 2.382876301209213565e-01 -9.655675883770279411e-01 9.310436635921637283e-01 -4.871683966161468593e-01 -2.266513789836085702e-01 -1.768809798954202039e-01 3.406187421325037601e-01 3.126373745857392028e-01 2.909000511328727057e-01 1.962754293178465281e-01 -3.537094835609272403e-01 -6.760316943501476494e-01 5.119590708933286632e-02 1.161490231635109227e+00 -6.486884689215213218e-01 4.321860588708175133e-01 -1.597038409299968986e+00 1.773687041380958895e+00 -1.370847216524329504e+00 3.204086293160567089e-02 -2.421083890525896010e+00 -5.013381597369702403e-02 -9.338854841049090139e-01 -7.200584308671037492e-01 -4.223625447713792447e-01 -1.549798406595169487e-01 4.923506908578476754e-02 -1.634475094996836519e+00 -5.069095300394169668e-01 -5.064834739768319105e-01 -5.481272681753864839e-01 8.817884682629905102e-01 -9.632956735760838107e-01 -2.577435717912967550e-01 -1.381214736379612118e+00 1.650092733838677272e-01 5.315630568449217774e-01 -1.732821651390846984e+00 -4.065637617102205170e-01 1.299254658564376497e+00 1.158305808842542195e+00 -1.181250100039267892e+00 -8.042742564551509654e-02 9.553112161090003551e-02 -1.209475760704026959e+00 9.218896097895015185e-01 -2.066203572140397626e-01 1.480005027167133891e+00 1.717235648038698548e-01 4.910313982672527833e-01 -6.110420178519850865e-01 2.110768147238960779e+00 1.696829882503312625e-01
5.544115818601007550e-01 -1.046369284283443953e-02 3.207266040162936593e-01 -6.688762997494124285e-01 4.243863021442493833e-01 -1.043274028249287833e+00 -1.579954977065830546e+00 1.707901749598742525e-01 -2.786088507952830806e-01 7.414412823243742290e-01 1.787805133895833842e+00 -2.092401654880972739e+00 -6.033879379883786420e-01 9.480587121855150734e-01 3.544215102729013078e-01 -4.291215036962203189e-01 -2.558379176781641617e-01 -8.209745214792069090e-01 7.587835818542902899e-01 7.636938106267251447e-01 3.290877250795328224e-01 2.903912250719884458e-01 -6.235462939788702919e-01 4.607338256711935309e-01 -2.158789866991204232e+00 5.770765933359511823e-01 5.934855619917314140e-01 -4.625112526913749411e-01 -1.455205943691902482e+00 1.761257014848298885e+00 -1.281672806422114119e+00 -1.025162260928580205e+00 -1.834580495600054428e+00 -2.027840618786866056e+00 7.937772796307657197e-02 1.566984721146398973e+00 1.353774827734866681e+00 1.246695078041227811e+00 -6.638713520579838864e-03 5.315011704264906989e-01 -1.841943030964100780e-01 -6.335957945030017413e-01 -1.034747501085056420e+00 1.043459092609313688e+00 -2.074061394319211882e+00 -2.036840667334933297e+00 -1.230539772027646528e+00 1.869712509414805657e-01 1.233216400702241256e+00 1.956099569044731368e+00 1.148270490554635037e+00 -4.054711661790920685e-01 -4.842530876549874241e-01 -1.162681052639775059e+00 4.217535466021093971e-01 -9.574546343947817340e-01
-1.250628936705792116e+00 1.378273742866841900e+00 -1.121226463829673614e+00 2.177951753582022754e+00 6.077901015584565719e-02 1.770685357244008218e+00 -2.486952739974263582e-01 1.343522347606404654e+00 2.087393329279289556e-01 4.887041680951760836e-01 -5.958364077835617278e-01 1.217510919253009360e+00 -1.076988729966627811e-01 1.745255283844665772e+00 6.571526895820149761e-02 -3.023848463265213504e-01 -1.641202408681416980e+00 7.957237675629541540e-01 -1.226796940158089377e+00 3.369121322094815324e-02 8.154772962235949940e-01 1.859488614777321969e+00 -1.648395285789545639e+00 -1.351848070017703796e-01 1.582711099848673753e-01 -2.406404787853649863e-01 2.479038270695458568e+00 -5.598337136031165118e-01 2.792491630014201642e-01 -3.627763950960615214e-01 1.049882190113464314e-01 1.611394973632507055e+00 1.058803919406606786e+00 -6.358322980342387964e-01 9.130395528590796728e-01 5.809863321975820005e-01 -6.284036319466571596e-01 -1.193966159448828668e+00 -6.462516070139102675e-01 1.398499439749363082e+00 8.120408865762600570e-01 -2.621322850874366339e-01 2.706940059465589021e-01 -9.399283286178552466e-01 1.151838618337776676e+00 1.347634151930485968e+00 -1.195190591493299648e+00 4.157328769605811436e-01 -1.801621918534743183e-01 8.930059536235771533e-01 -4.748482706439357548e-01 -3.512977466102893548e-02 -7.005092525898675149e-01 -1.344122020989469823e-03 6.609182444862908845e-01 1.035634168269647715e+00
1.743023788064831381e+00 -1.110413711330069608e+00 -1.532364476389767693e+00 7.504254128661572709e-01 -8.000575189362800765e-01 -5.636149437444631927e-01 -1.995955632577087538e-02 1.421868806756450221e+00 1.122899302020560208e+00 -1.880600699460674152e-01 -2.119293773108019696e+00 -6.599252330011556866e-01 -1.072296248302796462e+00 6.421282621125241896e-02 1.255349729212811960e+00 -6.735083427289212388e-01 -1.205412743318870383e+00 4.797239870390774263e-01 -4.628502995629461131e-02 -3.336091643209515567e-01 1.397990886439934299e-01 2.853462247743864255e-01 -2.639102149331472580e-01 -1.883194073556862413e+00 -1.177115937586929117e+00 5.319766912425021310e-01 5.968307509822688983e-01 -1.182189699281283701e+00 1.525911535108656958e+00 -1.383802218606551282e-01 -7.324940312430109346e-01 2.868172974235956296e-01 4.592069927688072761e-01 6.034786862764346393e-01 -1.225395078469252219e+00 -1.390760553257020193e+00 5.705202753970213259e-01 -2.920504165941491606e-02 1.469362185623848571e+00 6.738054448096898463e-01 -3.902665945875112286e-01 5.137778167385682604e-01 6.462672637210519211e-01 -6.841386485141102147e-01 2.611350390867629434e-01 6.114071742378640595e-01 1.178584981256522113e+00 -3.953962364590467571e-01 -5.530808465048171474e-01 1.356743609698381592e+00 -1.735536532696442702e+00 -1.847636600073647162e-01 1.846320724148431180e+00 -4.699472298740769438e-01 -5.564959022811726275e-01 1.480360769621827388e-01
1.730833835841143697e+00 -4.698531424163149284e-01 -1.595741955285965075e+00 -4.791357511061156149e-01 6.160757292632212945e-01 -2.003232266822934093e+00 -3.837114983881823593e-01 -1.044602628190291815e+00 -9.791183251141830635e-01 -1.597064070958309712e+00 -3.138392038867069966e-01 -7.354392482365614825e-01 -1.804197253960204916e+00 1.089716682099949319e+00 -8.255036164466263982e-01 -6.595364776549959007e-01 -1.022549559939728958e+00 -2.903020521534419585e-01 7.091043169887473185e-02 1.074824225031130398e+00 -2.628284641142026867e+00 -1.530790618412888549e+00 -6.216472182485838216e-01 1.931177952135762488e-01 9.406469990574519713e-01 5.383101247220404284e-01 4.734122825700739501e-01 1.534152814334704074e+00 7.673965541969749449e-01 1.800922508972910840e+00 6.456351528662055417e-01 -4.506455944973912220e-01 9.952322694806170489e-01 -4.554209190260924967e-01 1.043496610119581280e+00 -7.766066182204542923e-01 1.008056442652086826e+00 -4.444570468524616236e-01 7.911952463185545348e-01 1.880359082663582704e-01 2.449484960842864684e-02 9.201947164163836179e-01 -1.937402604607444678e-01 -1.557931462934731393e+00 -2.231911870823190258e-01 1.496788009998954561e+00 -1.103552793967457757e-01 -9.881277186824759529e-01 5.235414954376526042e-01 -7.819229180828958237e-01 -6.149096001300465852e-01 1.169734893655326902e+00 4.705900583332626730e-01 1.219057151748019763e+00 1.173176450861559195e+00 2.026356260266264364e-01
-9.396964016466547998e-01 5.518791858854698029e-01 -1.074091197301435319e+00 7.023039192177370493e-01 8.981027366509133913e-02 -1.331681947846877323e+00 1.013294925199387797e-01 1.157458296325768909e+00 4.447540107433730627e-01 -9.993037437767825215e-02 1.544245427091530953e-01 -5.979079141830302424e-01 6.444381730284389764e-01 -3.269981336429220731e-01 6.113679904156056333e-01 9.818888423181813818e-02 -2.098585770863512501e+00 -2.921964168488759561e-02 1.475436197010195016e+00 -1.778754566747756227e+00 3.004928345223092587e-02 7.036427867868579877e-01 -2.447997431810037261e-01 8.754626122494774121e-01 1.063894783347153705e+00 5.052151481699019842e-01 -1.441291764493739302e+00 1.269360084558357027e+00 -1.232025625433014054e-01 9.672742565691039296e-01 1.302584260853816733e+00 6.972584304004731948e-01 -1.458946348328626685e+00 5.299982424108145018e-01 5.437211362090306199e-01 -6.194997957680842271e-01 -1.471141911567646066e+00 6.051860067248372443e-01 -8.255314004588742982e-01 1.560270084048341221e+00 2.973524603714295389e-01 1.476191971634245981e+00 -5.974868064235251408e-01 3.714432196681863863e-01 -1.141874352366423429e+00 -2.941509550703100273e-01 1.629564254271760104e+00 2.778472651437862151e+00 -1.779275071949741660e+00 1.364201009782959551e+00 -6.902944824883693320e-01 -5.632002316027547861e-01 4.900456495793814593e-01 -1.249859185855544563e+00 2.987969662657914971e-01 2.880505703644481094e-02
1.639898579983018134e+00 2.608816470795531028e+00 3.538335948781767826e-01 -4.188988898958458940e-01 8.169236158005191983e-01 -1.037986265357234927e+00 -6.967943005154519920e-01 4.740176034638058922e-01 9.727155715086872600e-01 -3.111207655684959938e-01 1.630575910512436222e+00 -1.115396705930417287e+00 1.648687383649499294e+00 1.639735412058533903e+00 9.427522799551971699e-01 -2.365430945638623772e+00 -1.717688584368616045e+00 -1.165975636904541313e+00 -4.804165684748265552e-01 3.956760198534655104e-01 -2.994544134346694420e-01 5.232385580587667340e-01 1.483675958845750249e-03 2.719466777190973628e-01 -5.378698701740978194e-01 3.306070354330249428e-01 1.579770922327248917e+00 -7.450150201301104780e-02 1.808902511449310024e+00 -4.074512478724524045e-01 -1.028253285347648260e+00 -1.502675478620202343e+00 -7.217741443324670048e-01 -2.333259081095917065e+00 2.936403239294252954e-01 1.825346554602030213e+00 2.236228821297530089e+00 -3.711688102958367597e-01 -1.453677946051562753e+00 -1.224828394607860638e+00 -2.107601522978559405e+00 -1.195326792464064480e+00 1.276301629211706867e+00 1.889198842439966386e-01 -1.887062050226051335e+00 -2.489612136143996568e-01 -1.760967237318857848e+00 1.603881000644480914e-01 -7.391065384604246502e-02 -2.095617578479039178e+00 -5.030612251739063900e-01 1.702068122083019996e-01 -7.810597697304066944e-01 9.186746449934127812e-01 6.622881582103436193e-02 -1.088497878322892021e+00
-2.537885149401010176e-01 -1.521313312717219590e-01 8.956171347566889152e-01 -1.045111294701158489e+00 -2.869642137869451992e-01 5.233507416225970932e-01 -1.359179528230464173e+00 9.772981893270786813e-01 1.508273704730899389e+00 -3.205295571071508642e-01 1.711017907386210180e+00 3.357562021394314700e-01 1.022664973850237802e+00 -5.099709948851375296e-01 9.616870289734025246e-01 -1.516994378314503900e+00 1.042838315959718098e+00 1.136281240133828030e+00 -2.758521327690402480e-01 -1.026114462792773324e-01 -1.419156599118529760e+00 1.474341482621610577e+00 6.327859512036166922e-01 -7.385565237791096305e-01 1.401320755675618257e-01 1.821445352854103250e+00 -5.380843193082799347e-01 -3.129379832778712567e-01 -2.900745130956649209e+00 -1.827039120086951574e+00 1.994489410805329876e-01 2.532395776332342363e-01 -1.448037200649082257e+00 1.282273371305546528e+00 -1.288265328086774242e-01 1.444275650014501089e+00 -1.426525317490788813e+00 6.947842575505012164e-01 1.126157822513546458e+00 4.105140285191236638e-01 -1.180057351730493531e+00 -1.131317014692893690e-02 -5.598389216617460917e-01 -1.290259413593051629e+00 9.138637491652853440e-01 -2.032683690194301285e+00 -1.301028684221679166e+00 1.638366049203209052e+00 1.515545136097907752e+00 2.692455895216321893e-01 -5.443345888449803160e-01 -9.326264623456858027e-01 -6.155671526904309410e-01 1.192063734502019079e+00 -1.329652087234996172e+00 1.059688165151573713e+00
-2.208364371317985242e+00 8.100271124489518693e-01 1.121479988803695704e+00 6.840637318484069640e-01 1.638218441504210032e+00 -6.602244390797447071e-01 6.419258244898079502e-01 -1.537971746736575662e+00 -1.259122411776381067e+00 1.161223474657867127e+00 6.154307316374664216e-01 -4.195003136867932469e-01 1.403783456108740557e+00 -9.457906023847786336e-01 -6.718891390364929439e-01 -6.062469047413201473e-01 6.479369911471358212e-02 -2.357303303097900427e-01 1.530271753892237907e+00 -9.011384854169859349e-01 -1.600436725019743101e+00 -9.348806087962276967e-01 -1.219402722581965248e+00 4.020018825253206529e-01 1.202500443667681163e+00 -1.416387500048264192e+00 7.233245434760064985e-01 -5.523575334956549732e-01 -8.854311472478715306e-01 -1.795863877361459915e+00 1.726604403344021765e+00 2.848745554853370776e-01 -2.488615644082804446e-01 2.739706157865776648e-01 -9.341254031112253831e-01 -1.867300237153830755e+00 -1.771245725388113756e+00 4.915648843149085789e-01 -1.650709676349036660e-03 -1.416965173335602790e+00 1.576965806613911114e-01 1.020863593093527255e+00 -7.917904235488536224e-02 4.895444791137015805e-01 2.657929478482708996e-01 5.518811049115224243e-01 -1.030902684899423383e+00 5.228433462576990154e-01 -2.681997428499839353e-01 -1.195688746441961881e+00 -2.940038649791352765e-01 4.735118804424514605e-01 -7.666008127615948908e-02 1.079113983290661105e+00 3.967813727334306151e-01 1.080427353805923030e+00
-1.464826064981007869e+00 -2.468990243255387851e-01 -9.276291546540967881e-01 5.695573833605955816e-01 -1.046355885219431681e+00 1.239300404415880408e+00 -5.304012682146287683e-02 5.072459750186104621e-01 -1.807624130864810219e+00 -3.432426720053980973e-01 3.831818964246963555e-01 2.117494317701832163e+00 -1.491099134778129665e-01 -4.498143562162557410e-03 -1.944532136191560845e+00 1.614021629035366390e+00 7.902196609941282146e-01 -7.729328879014740750e-01 -1.422253750424523622e+00 6.466082581595058443e-01 7.920794819762030370e-01 1.276005135347613173e+00 1.367983514404495393e+00 -2.167593006886850748e+00 -8.774431662508895904e-03 -6.571089263556525450e-01 -2.264247551259679803e+00 -1.670196507795174368e+00 7.037175516914658813e-01 -2.802148750467213567e+00 -6.105897730388383238e-01 -1.536324073496510900e+00 -4.485029335913415793e-01 -1.180490195954008725e-01 -1.170471578326884865e+00 -6.083306301943254280e-01 -5.267109133465319726e-01 1.452691427947814917e+00 1.045831564784297507e+00 2.202857256334811720e-01 1.119409314036128755e+00 -6.598709493547190441e-02 -6.281235159180813543e-01 -4.397984085045948954e-01 -5.951240894208961185e-01 1.327805028068646198e+00 -3.395296281933932181e-01 2.065931024874192168e-01 2.390953574495181755e+00 8.408699322546933086e-01 1.272485955491520881e+00 1.626953165053491634e+00 -9.790686447659076030e-01 8.659261802883339021e-01 -2.728444530330077500e-01 1.706973235992013341e-03
-8.303340360913449292e-01 -1.237237423928186475e+00 -2.673911158272510025e-01 -1.337051268238232504e+00 -4.982503408190540051e-01 -6.723931011717815265e-01 2.658220230758464586e-01 -1.479221115426349931e+00 1.365437226077709676e+00 -1.125229421575882904e-01 -1.093616609073007062e+00 3.348624839756695892e-01 1.593269285699527860e+00 7.317077268860147643e-02 -1.830438823365306389e+00 -1.071834980553090899e+00 -1.551167370499616727e+00 -9.452689029868919235e-01 3.247807211413676343e-01 6.252665382472502031e-01 4.834308048696124849e-01 7.970812626231222886e-01 7.092226281197698823e-01 -2.543536877494830817e-01 -1.578738907187872798e+00 -9.949850458399690789e-02 -1.433194741734346911e+00 1.428444486569506178e-01 1.424274338425677300e+00 1.280712348301665582e+00 -7.527146513689365603e-01 -1.289722983631831132e+00 2.225736682089963780e-01 1.119341850158529716e+00 5.309478045122670853e-01 1.062739887403928218e+00 -3.108486768910580511e-01 2.872412534974934095e-01 -4.693145142874931564e-01 -1.227725546784009358e+00 6.929945804469519466e-01 -4.686512323610452224e-01 -1.531323017766260897e+00 8.516487967329001707e-01 6.634207073496699580e-01 -1.152011740224532232e+00 -1.052927145249660419e-02 2.075744547336249024e+00 7.493272926076995077e-02 1.083693475379473359e+00 -1.422729563949109099e+00 -9.642605405944224550e-01 5.613317135810597103e-01 2.291743066822925778e-01 -3.606452948232127809e-02 9.207272437305805690e-01
1.634561293527218462e+00 3.181987280507306837e-01 -1.198703652828635446e+00 1.368634862163835120e+00 -1.026629667300985371e+00 -1.327363718018750083e+00 -1.548980961441440263e+00 8.632185308152025005e-01 -2.070600447420574586e+00 3.328447434628340473e-01 -6.724062231699591274e-01 1.651363865214163118e+00 -1.307755647772014918e+00 7.251786215975031258e-01 4.589199503729998741e-01 -7.223885630373012567e-01 4.413917845612637114e-01 -7.867140643832096769e-01 7.991189249301438036e-01 -4.520995347667066122e-01 -9.824526020501112011e-02 -1.013805524925182888e-01 1.163763810488310617e-02 -2.922001370258536790e-01 1.082596001071300940e+00 8.983739390356136889e-01 3.861946094181931133e-01 -4.948682966576622433e-01 -5.403006627199080647e-01 6.874279804321947740e-01 5.786028391148316796e-01 1.475606377490555898e+00 -9.176495168151379556e-01 2.862011190276108064e-01 4.121629151245012057e-01 -9.468456351910967683e-01 -1.662551926388822557e-02 -1.119716179730515737e+00 9.945166168816184094e-01 -3.071846142197081631e-01 2.580978243753670132e+00 -2.821311777139476340e-01 2.175311732717181812e+00 1.933818758950074601e+00 3.066208065781316883e+00 -5.341250212483248522e-02 8.129463192579223785e-01 -2.644757076976471111e-01 -3.132341785799193645e-01 1.430430390670304641e+00 5.148592722898450713e-01 -6.177148765236576411e-01 2.464546539636373601e-01 -4.263922588431771910e-02 6.111269054392416411e-01 -9.308060811950471525e-01
-1.198553319424030983e+00 -1.107043493698917525e+00 7.132488308826203660e-01 5.929897899553482343e-01 -3.508313966865652112e-01 4.702727847226005342e-01 -1.770944310393950838e+00 -2.330909900464161577e+00 -2.553757515048232785e-02 -7.631692048005170315e-02 1.556400914187642925e+00 3.566646379029037583e-01 -2.569423554561865441e-01 -2.013968805589205768e+00 -3.615288693348823190e-01 -9.165343040281438425e-01 -2.867372068675783647e-01 1.855157762652118292e+00 -6.671755956686570288e-01 8.986328931231334360e-01 1.690177251581152618e+00 6.569230033141923997e-01 1.589098958480235524e+00 8.517680796865267911e-01 -5.828306244683151283e-01 -1.184445331859232731e+00 3.849409036502801085e-01 1.345072381900720426e+00 -9.066506851656457311e-01 2.294077504075790197e-01 1.863427944656351476e-01 -2.955609363116888932e-01 3.757898524924211947e-01 -7.782329520262503131e-01 -2.278075045624149489e-02 2.497294739205959679e+00 1.973235604008011013e+00 -1.173309431406252434e+00 1.042300382183274587e+00 1.118787832730943288e+00 -6.410984212350597788e-01 9.788412473611945996e-01 -8.809047817594285457e-01 1.799493924960095415e+00 -6.649789104555253738e-01 -3.004900051365237967e-01 -1.091415855150531300e+00 6.611997437251673770e-02 -1.305105151196173985e+00 -2.394933450791794982e+00 6.557770904243633847e-01 -1.916699074627551402e+00 7.362569629807855787e-01 -2.295073192241175730e-01 1.805534613134440747e-01 -9.926778277551467911e-01
3.205143094124188741e-01 5.188661220222794412e-01 -3.001987894120635159e-01 2.729259826113004106e-01 -1.504020561225448027e+00 2.496041584555485637e-01 2.958917034208082275e-01 3.365672283826808275e-01 4.359626363463789955e-01 -3.448162834524119424e-01 -1.770246329228651605e-01 1.030295359445370318e+00 4.772370134802936259e-01 1.395119326140116002e-02 -2.006935375503679175e+00 -8.476942018795152745e-01 -6.710735207807683178e-01 3.031121923829920295e-01 -1.499184083698174685e+00 1.453222221118734003e+00 4.005454352154877995e-01 -1.049279704059648655e+00 -3.802043095808461670e-01 -8.418205738922344139e-01 -6.759124029801683031e-01 3.374280232057144668e-01 -1.517240902101092415e+00 -6.904528824137835530e-01 -1.449939433965365954e+00 1.693624920105299081e+00 -2.445559180922681625e-02 2.051023796450475722e-01 1.035730506414382024e+00 -1.794698578039084946e+00 -1.653191835996970172e+00 -2.284814526265228185e+00 -5.840028236155581087e-01 1.616579554235426652e+00 9.024449788340962453e-01 -2.199015811372110607e-01 -2.349152021411629487e+00 1.420844028045124441e+00 5.468646067715162706e-01 -8.604346667080196021e-01 -3.787198056783354361e-02 -1.474112666990343712e+00 1.958383062645790540e+00 -1.584851223415109756e+00 4.376466071280044612e-01 7.273631366957610256e-01 8.707383093596621215e-01 -9.306343010942267346e-01 1.806939365374622186e+00 5.322597349114855936e-01 1.455933541486473803e+00 1.050366308835595008e+00
5.867969325495147048e-01 -9.642892876858327744e-01 -6.250349594124396946e-01 -4.312097878935432504e-01 1.221972032444051059e+00 -2.175796903240355407e-01 -7.915203327714809278e-01 -3.843467138396480243e-01 -9.699560933734834300e-01 3.171228976855267057e-01 1.615286575608224917e-01 1.380609160335637631e+00 4.480798880993481781e-01 5.581761109112919339e-01 1.373592006006147503e+00 7.511514642885500637e-01 -1.499866263486934859e+00 1.646364869797596553e+00 -6.137103067414798607e-01 7.994601738554875103e-01 -4.277467589400190673e-01 -7.804723680816086917e-01 1.655327676336219911e+00 1.117723722391604557e+00 2.658617906002104792e-01 -1.193227331661338875e+00 -1.709591243280095929e+00 -5.480050016330948459e-01 -3.784664076407902589e-01 -1.020450815417115908e+00 -7.748706998647241218e-01 7.040503564149723781e-01 -6.057598868685062365e-01 1.878237486660778721e-01 -2.028806045392455459e+00 6.259133730608286150e-01 -1.600020401642958001e+00 1.244854591165919233e+00 1.262759382758049886e+00 5.109972474672496157e-01 -1.046300650943087440e+00 -4.177978864715007901e-01 8.815604428485390720e-01 -4.272620228668255193e-01 -8.602498692406922443e-01 -8.009718435522714675e-01 -3.400739782926766042e-01 3.316102121608001663e-01 -2.129250689856286183e+00 -1.831050305774595266e+00 9.295075193000518210e-01 1.741947500565486529e+00 6.784361098516478172e-01 1.098412843808546091e+00 2.036541199166918670e+00 9.369675815663268681e-01
7.216418283255566779e-01 -1.280097711355628887e+00 1.514384903796279325e+00 -5.500561893104363165e-01 -1.267162647260342112e+00 2.538549744857454993e+00 -5.700208293434438911e-01 3.247818620213890201e-02 1.492128301892360787e+00 6.978223767522897525e-01 -1.261174395968534645e+00 -1.651342877633194872e+00 -2.082213585487234564e+00 -5.887254778952277778e-01 -1.481578433769937531e-01 1.034564708202491801e+00 9.849046017172432554e-01 -2.697874206429876076e-01 -2.647271838814125866e-01 -1.090742888109032943e-01 1.668715185168144322e+00 -8.449079803429455637e-01 1.426519289988700034e+00 -3.510958229738646019e-01 -2.101762019222678468e+00 -8.544475752573801874e-02 8.841236962950469458e-01 -1.751733609314978790e-01 -4.038817585730460902e-01 -1.630949606449207945e+00 -1.169129335620183729e+00 8.977397957067267953e-01 1.493600990906011505e+00 2.788731318259278780e-01 -1.850259838510397506e-02 -2.208569100886430991e+00 7.565649226619296508e-01 -2.752475043013086764e-01 8.908685941022105315e-01 -3.509110426215026890e-01 1.213612238314909719e+00 5.293872425389150038e-01 -1.509804855325031614e+00 -1.255378203515788993e+00 4.162980426075703622e-01 4.039796406414892377e-02 1.043448628544801915e+00 -1.414386365823963265e+00 -5.258460937404599855e-01 -1.921875225057770586e-01 3.167699606205872875e+00 -1.560608743448158864e-01 2.709055976608141791e-01 -5.931814051389190379e-01 1.367514524581379343e+00 2.234734813039212231e-01
8.938302361550911623e-01 -1.177140374441087101e+00 -3.233673976573706033e-01 9.530835387889758925e-01 -5.134290442764525286e-01 1.837988469086401233e+00 7.847063147838341246e-01 1.728930873910763610e+00 -1.161947884657844376e+00 -1.231357752090148194e+00 2.372303729487311941e+00 -6.587224103058161306e-01 2.783336159371230800e-01 7.226764261352832674e-01 1.050904177382154581e+00 7.158503537585277077e-02 -6.835728237918305972e-01 1.281810994647765378e+00 -1.274574301418238964e-01 -5.560427919126637031e-01 -1.051349733455915203e+00 -6.512772109056593761e-01 -8.548848963540522927e-01 1.269179235894305480e+00 -1.081221647558341825e+00 -1.299355382642649048e-01 1.997791187599606000e-01 2.531767000450004357e+00 -3.009874714451296965e-02 2.529802760692520525e-01 1.723302334257972301e+00 -2.983155435727537497e-01 1.276655624542638146e+00 3.698313555699307420e-01 1.484232997866316461e+00 -1.274752082980624424e-01 8.472966269959083530e-01 -3.436208530891900481e-01 -1.978239869835678733e-01 -2.681321552989204826e-01 -1.114722630963222993e+00 1.576242673812764172e+00 -9.486220460138194976e-01 -5.346831753912053425e-02 1.471937168294856491e-01 1.188905438461708597e+00 1.278577435167518761e+00 -2.265449846765932584e-01 1.980372340090157390e+00 9.763834882415182159e-01 -1.060987220833901956e+00 1.849471290676318880e-01 -1.417010885853375868e+00 -2.152844483489918304e+00 1.653459951537374684e+00 -2.114056201980653249e+00
1.113140807407870581e+00 2.096314433252195464e+00 1.308150261403090431e+00 1.074081451547805460e-01 -1.147195649858398836e+00 5.182310771047594633e-01 -1.763149512890154480e-01 1.048907191932719613e-01 2.647582520910092274e-01 1.060699223535906260e-01 -1.507533742867670501e+00 3.826395339984173249e-01 3.247691579736867729e-01 -2.547921645698051837e-02 -4.548107343976001693e-01 -4.887283279799584657e-01 -2.516892250557492883e+00 -1.657067672682147053e-01 5.949591117150382878e-03 -1.263164493492092033e+00 -9.613194806475847676e-01 -8.070543010987700772e-01 -6.142416133163921543e-01 5.765754433834380244e-01 3.908112606194910632e-02 -1.219700552312136033e+00 -4.904438705661257059e-01 5.412875173692827113e-01 1.398421788632729035e+00 -1.732004926395824151e+00 -1.419737801287405343e+00 -8.745932997139419518e-01 -1.318462714009605463e+00 -1.595374933518178162e+00 -2.347286795545495131e-01 -1.785342310109559349e+00 7.126522887481825386e-01 5.523255414333146929e-01 3.561805329779289542e-01 -7.892381576758431549e-01 -2.728303763239397495e-01 9.624977878909943829e-01 -7.433337039128491419e-01 1.345953534936658480e+00 4.244417406878389643e-01 2.103547362643126972e-01 1.002722033394455314e+00 -1.970739940433182236e+00 3.990633519213339642e-01 -3.778033312437216296e+00 -1.077898511669235782e-01 1.216296001744560540e+00 6.227738898159478342e-01 -1.085575429231870448e+00 1.374249528914471385e+00 -5.202948760802327266e-01
-1.451700986408739569e+00 1.043435267506979569e+00 2.624956957918843092e-01 -1.831932961128789616e-01 -1.578436040116698802e+00 1.171723615153744458e+00 -2.794809164704981641e-01 -1.337296820016596444e+00 9.793835524357458189e-01 -2.082796057248786914e-01 -1.043852616154915536e+00 2.757125418775532300e-01 -1.740403865849870391e+00 -7.120700332706703106e-01 7.756410850201873597e-01 9.677898871605420394e-01 9.905132441815920341e-01 -2.470283503738323339e-01 6.681451043971616821e-01 -4.571633106319449719e-02 -4.151587339773886165e-01 -3.613249477599123627e-01 1.343365968642707742e+00 6.459478104492559838e-03 9.224998717817741722e-01 -1.636928159884214917e+00 -1.795526519250719433e-01 -2.512627160264224724e-01 7.195821628054770436e-01 -1.120353453932575905e+00 -1.340385103153270085e+00 -2.866095618711954861e-03 -7.987833881746180253e-01 8.102388201618944408e-02 1.340653379884125362e+00 9.710766595921618838e-02 8.372051966906788323e-01 1.104883141053065287e+00 -1.767835057890909389e-01 8.448115741606017082e-01 -9.716396345975718551e-01 -2.929582420405482113e-01 2.543958828171014042e-01 1.593650030714585775e+00 1.498708022470689905e+00 -4.722459728383282540e-01 -1.395888682071768416e+00 -1.204096209620775515e-01 -2.788464528205320536e-01 2.151459709442972990e-01 -1.887363833309328165e-01 2.352743708557205049e-01 1.032257239986047015e+00 6.174196334075018333e-01 9.353928135209637063e-01 1.640046030799209964e+00
-8.672210352250758758e-01 -8.381479619833814843e-01 5.288491981338470094e-01 -1.110275116563396586e-01 -1.551597992365616463e+00 -4.575909321233506688e-01 1.264798486234839370e+00 5.931481504016136719e-02 -1.084538598515418784e+00 5.270428491869797449e-01 1.801207783512808192e+00 -3.525576363174336980e-01 1.778074874577034170e-01 4.793880318003110874e-01 2.060585935503615129e+00 -6.232335813277115610e-01 1.387090684117564532e+00 6.641672661131576838e-01 -3.423302650271143818e-03 -6.975021540605567949e-02 8.439860203408290351e-01 -6.734416850333077020e-01 3.166541808661386681e-01 4.672213666459043568e-01 -3.573632741571503013e-01 -9.763870545056592132e-01 1.194989762081064333e+00 -1.555066893521694082e-01 -3.548183692105668641e-01 2.498919881675979726e-01 1.053404586780949836e+00 1.179737269690457779e+00 6.469778373213880274e-01 -3.374456616961188371e-01 6.783437731315050678e-01 -8.390658177097047865e-01 -2.663596355049121733e+00 6.888969002121428931e-01 7.836574552387673975e-01 -4.465804749714459843e-01 -9.609456421376150193e-01 -1.643239872411462188e-01 -1.069536362510130401e+00 -4.554219755488104759e-01 1.188727452400711870e+00 -6.372225383713000513e-01 9.457242307401675374e-01 4.992413814805840011e-01 4.708585117763768729e-02 -6.698566832546873906e-01 4.950632452773880976e-01 2.326445197448091529e-01 -1.895742344559532500e+00 -1.188510834847283704e+00 3.841047420025329728e-01 1.142568648139024035e+00
-8.719491266477461533e-01 -1.206508182985255972e+00 -9.526945320606439171e-01 1.569637095318602293e-01 -6.045165504536449408e-01 8.879794244961028982e-01 -3.541970367026511801e-01 1.066409800337691838e+00 2.267952741758362034e+00 -6.211559116029559124e-01 3.376357644534255242e-01 3.119043013605998435e-02 -6.634316790491014970e-01 1.964778608301327667e+00 2.065646094691203860e+00 1.200481068611428115e-01 -6.680520765964739205e-01 1.258638153540796223e+00 1.082907691409629169e+00 -1.752643261160089949e+00 -1.397671815429918807e+00 -2.866352246346457466e-01 -1.425659862523354970e+00 1.538249609062878775e+00 -1.011070806005988532e+00 1.078246078767637200e-01 -7.235658317159466835e-01 3.592573711688350491e-01 1.227853626216443894e+00 -6.200342587835302455e-01 6.585732451551223887e-01 3.247462948360734791e-01 -1.659241036604272690e+00 -3.085905065409018655e-01 -1.488266743266212222e+00 5.145883833321960310e-01 -1.407699196675576969e-01 7.800061428944995989e-02 -3.885403434786506849e-01 4.302670705086408254e-01 -2.865984484678550381e-01 5.073557772568630941e-01 1.387320668003025892e+00 -2.260479912035012473e-01 -2.824601296455850452e+00 -9.402457603750012938e-01 -3.939507391730586172e-01 6.931068865902781928e-01 -2.243503552698245529e-01 -1.399237256319350697e+00 4.867812927191720873e-01 2.338375546637665170e-01 -1.056093809413764184e+00 2.972358889728304310e-01 6.982647012951930243e-01 9.457466916189508632e-01
-1.430089035818845611e+00 6.278474410525752836e-02 2.622338967403447518e-01 6.198902029355082277e-01 7.857316536281229169e-01 -9.935315226904263275e-01 -1.273949865549145466e-01 -3.527732917990287764e-01 1.301131423345781801e+00 -1.902246881128950351e+00 -1.584720911149468670e+00 2.277292902451426571e+00 1.910546499772455498e+00 -3.288144631871024459e-01 -8.423732253480908927e-01 -1.170709621277614243e+00 6.803708332522389046e-01 5.748133479315954419e-01 1.000516180675002365e-01 -8.097347437493122024e-01 -2.945047421519064179e-01 4.758226408296801768e-01 -1.084744632861790681e+00 6.872526563230971219e-02 3.812008554775201952e-01 -4.190686969053911137e-01 1.596118551845817413e+00 -1.625944120223422051e-01 5.737271630704134928e-01 1.369328852593197476e+00 7.217274310010939331e-01 9.634024593423079486e-01 -1.070688244564991454e+00 2.099383297349453503e+00 9.944817502294016620e-01 -1.377442170872803517e+00 -4.191080856493999973e-01 -1.378523320736054769e+00 1.060224294891812136e+00 -9.764058967587856408e-01 1.866165674567612232e-01 -9.389362670165734004e-01 -4.916031012394616040e-01 -1.676517322670577403e+00 3.240391217447230465e-01 4.806331023225953736e-01 -4.176865773931959791e-01 -5.487621836000743381e-01 9.962348416984840860e-01 -2.504632248934782757e-01 1.397185279066687387e-02 -2.662654692079081120e-01 -2.906029455210878076e+00 -1.181799040793079625e+00 -8.064750004869765121e-01 -1.002639431020719618e+00

# Layer 2 weights: shape (20, 36)
-3.931557277172995080e-01 -4.849281106980840028e-01 -3.865408838714163853e-01 1.225837751583184865e+00 1.560048284511578398e+00 2.695061891113003649e-01 -9.925309870948784141e-01 -7.414042642963140084e-01 -7.724754326536690252e-01 1.418550099770302220e+00 1.298154502779424568e+00 -4.054815168522553082e-01 1.456809266633465771e+00 1.827479801004504134e+00 1.253169933885182719e+00 -2.004955846715383849e+00 -2.306209100833918058e+00 9.578314617506776818e-01 -6.587315089557197467e-01 -1.134923230896207169e+00 -1.475580178255967989e-01 1.896985188218644369e+00 -1.112903008160418095e+00 -5.742094234026120514e-01 -6.269544971091736696e-03 -1.166763006221065435e+00 -8.117896221490999986e-01 1.903678010121511388e+00 3.171639728233839328e-01 -4.680007724963233251e-01 4.526721107644322006e-01 8.220334673775642198e-01 -1.152733750585263506e+00 -3.913820866084231076e-01 -2.258029811947135368e+00 -1.057545744341424898e+00
5.586906132039244355e-01 -1.296125502621220171e+00 1.458695639083104290e+00 7.741286875954082047e-01 2.335510251640774193e+00 -5.659777875792461332e-02 9.437238944672760033e-01 -6.323741317223834368e-01 -2.104860167160490292e+00 8.219130035851125449e-01 1.255537425352949654e+00 -1.407388652518875238e+00 -1.639448345981572963e+00 1.528346759570599289e+00 -1.518421550453597613e+00 -3.933631430709748078e-01 2.620911412981515198e+00 4.051731042596847798e-01 -1.487072454038334546e-01 -3.980263122603412418e-01 -2.445884438888673795e+00 5.809221703761920930e-01 3.632808368454409909e+00 -1.860774471070756331e+00 -2.675482087690280508e+00 -1.366230632644212184e+00 -1.875610116464308641e+00 7.311630354687519429e-01 1.929529759876136508e+00 -8.486667543910482447e-02 -7.208229927082723254e-01 -3.117604035783222982e-01 6.128072764328439392e-01 -4.087913503422332395e-01 9.709884181652583823e-01 8.430476832535227505e-01
1.491612694844455689e+00 7.046192515002448753e-02 4.615611931953252922e-01 -1.103204276500430403e+00 4.109730672114703665e-01 -1.307327366699107429e+00 -4.026340028394506665e-01 -1.320489767530779179e-01 1.364458974286959059e+00 -1.886779274220160341e+00 -1.929564636549814249e+00 5.713443869468980418e-01 -1.236359520864710015e+00 -1.223561123195792355e+00 2.804537721993345833e+00 -9.859009115384539390e-01 1.166752185293671085e+00 1.965283991635898841e+00 -3.287740802595021106e-01 -4.888698962779298163e-01 4.018273594446442054e-01 1.053741771913022651e+00 -1.012567031568220866e-01 -1.083048853884553520e+00 -1.255520247484487539e+00 3.470271174445908602e-01 -1.397134657881453856e+00 9.601946626989339706e-02 -1.345934457560990394e+00 -1.135410828660686766e+00 -4.379980288075928652e-01 7.487783688559659923e-02 5.744254907254763287e-01 1.471664827100837902e+00 -1.420891566553351137e-01 -1.140762107590204133e+00
3.962504707924613401e-01 1.589589214686442098e+00 4.085033924170719533e-02 3.708860731307704883e-01 1.395786116549216249e+00 -1.581601739838877307e+00 1.473170166025255190e+00 -7.932559634513891567e-01 -2.036197833565087656e+00 9.162258301227128587e-01 2.287883314861387796e-01 2.133537481421503568e+00 -8.728086347554772084e-01 -5.353067707573918588e-01 -4.415519223212127642e-01 -1.588906901442823871e+00 -8.687267123080768538e-01 -9.010716021683977672e-01 -8.295211317746511437e-01 2.139361583897871899e+00 -2.064406342354762058e-01 3.048454593007402513e-01 -2.183825283463498579e+00 1.089092260081818253e+00 -6.576430877196504099e-02 -5.085948641573085904e-01 4.662931296978893858e-01 1.413443782964204809e+00 2.867246583665013393e+00 -1.480701487620798229e+00 -1.058276230752380753e+00 5.799485022583650284e-01 3.319764841175189551e-01 2.068234953608232729e+00 -2.688077875610468959e-01 4.849761296344055617e-01
-2.192757481940454389e-01 5.641488955315464571e-01 -1.203086597731698043e-01 -1.939497696906677060e+00 7.493357707741495899e-01 -1.152719456791032604e+00 -1.485934422905444308e+00 -2.227179396087457519e-01 7.789777061973262029e-01 1.294599981287024137e+00 -1.513063731714115567e+00 -5.810770655254576811e-01 1.092051069409261527e-01 -3.676224852909883434e-01 1.526892261628971070e+00 -2.508614973908459764e-02 -8.840294199346895310e-01 -8.643259642224599970e-01 -8.615184123786022719e-01 -2.452646097840116557e+00 -1.781535216677841982e-01 4.991510225883603047e-01 1.156512392388969968e+00 5.831715860052111289e-01 3.026693118988069697e-01 1.862150694039161003e+00 6.562256073048027272e-01 4.035376430265021908e-01 -2.744436466424241550e-01 9.741644630160862794e-01 -1.717082534684144735e+00 1.999170262630706185e+00 3.000516148274900291e-02 6.140903113488234144e-01 -6.991955466042810707e-01 -8.425692814854505164e-01
-2.408266749700813947e-01 1.002532414081066525e+00 -5.553555188232509598e-01 6.467083232721964059e-01 -6.938795508619914898e-01 2.118859171319539936e+00 -1.464242569238807024e+00 -1.392772236444060896e+00 5.935769721943475741e-01 -1.216849493590712594e-01 -5.407998499213632071e-01 2.287565330006032571e+00 -1.192687812039111339e+00 2.298327466396008767e-01 -2.133688408704735029e-01 -1.034974865323348876e-02 1.757875244298249040e+00 1.111168648354350807e+00 1.292408594346257988e+00 1.509775102847592754e+00 6.275496054340039542e-01 -2.356824438431799271e-02 -1.969552873372564683e+00 -1.822718883164924364e+00 -3.042804138455636132e+00 1.602871447294471619e+00 -5.485291953596139747e-01 1.982139835943532713e-01 -1.988133139022935647e-01 1.174227621057588822e+00 -5.262911547985672511e-01 -1.267876803686307507e+00 -1.318818688720113430e+00 4.383864261168285426e-01 1.807139884710382283e-01 3.414801571208592179e-01
3.368328450366266380e-01 -2.981175019149166161e+00 -4.296643275096098114e-01 -1.875087194145392600e+00 1.129867590847972503e+00 -1.535357747280010621e+00 1.599153273193615332e-01 5.362312461703272470e-01 8.912074752775015485e-01 4.015715054517886573e-01 1.053589089580863281e+00 -9.875987070203648965e-01 9.732573715119353930e-03 4.994112028496650035e-01 -3.752648604127994947e-01 1.055878833566711750e+00 9.512891999648797059e-01 1.314555738777356098e+00 -1.539940147783242175e+00 -5.046640722026404235e-01 1.635705181056575697e+00 8.386233648293031084e-01 1.852672558466945008e+00 3.557720013740158782e-01 -9.042224602205897188e-01 3.175439612273570633e-01 -6.471755580652472917e-01 -1.072764220026137361e+00 -4.278186650318970274e-01 1.413689695149673298e-01 -1.419083801689602575e+00 1.807906300280821277e-01 -4.279506639305445392e-01 2.004511275495621248e-01 -4.732180090827999841e-01 -1.283913125322328153e+00
9.232893106978841136e-01 -1.408620855607618960e+00 1.964173208217180056e-01 1.491979024547562260e-01 -1.018905037080327786e-01 -1.784982886002874913e-01 -1.640671973437365150e+00 -1.350459808378493110e+00 2.303389020230864892e-01 3.190403902643146328e-01 7.277403219124376488e-01 -4.697876163359174240e-01 -8.065668921229343091e-01 -1.416634989408025458e+00 2.356490757940183367e-01 -5.401464188295892477e-01 1.981799739452438036e+00 -2.274973802752028984e+00 -7.857349915590067235e-01 1.147158582464019361e+00 7.913402058635641279e-01 8.136396036425682654e-01 6.117175513391239633e-02 6.501781823164688445e-01 -9.453090701788481320e-01 -6.380431103661481362e-01 3.301870931865485748e+00 -3.843201625015292278e-01 -1.881052444299088133e+00 7.994955726786745487e-01 -2.218584226692887018e+00 -8.549072258618725106e-01 -2.688133729803986009e-03 -3.542978567456149253e-01 1.101085031298346228e+00 1.034690573240891309e+00
-5.055898738601711795e-01 -7.592857169470819401e-02 1.522211484169359308e-01 -1.694159009537671290e-01 1.655593123455669780e-01 -1.737525313756139653e-02 -1.098908120462040117e+00 2.147081785112379571e+00 4.767771587945967560e-01 6.085375516691678976e-01 1.928066140397612038e+00 -2.010394646983530431e-01 6.971866269526700854e-01 1.925352589980459328e+00 1.034011220336201298e+00 1.326433266265452549e+00 -2.269962384342903705e-01 -1.875577871907223138e+00 1.501839442332067731e-01 -9.630288440236820513e-01 1.120152784794935963e+00 6.873626026444762394e-01 -1.109153995257329051e+00 6.866826395717602338e-01 -8.115978858217718361e-01 -1.962192593007898944e+00 -1.161548153059240862e+00 7.199290888211458128e-01 6.618371138855868585e-01 -1.218431445563664006e+00 -8.202554143810167897e-01 2.816680603128607352e-01 -1.081472799686914676e+00 2.730757003971229224e-01 -8.983275802914267860e-01 -9.039521886781586302e-01
1.451533846541383233e-01 1.373656820734170392e-01 1.455611462842606230e+00 -1.592288583236544985e+00 -7.219788050376124700e-01 -1.892156665550034589e+00 4.482176026027164251e-01 -3.041412794199824798e+00 -7.490603277364553392e-02 -1.111540095266050576e+00 1.548402692844311201e-01 2.374847904720879810e-01 6.796067402543426450e-01 -1.215260748378022670e+00 1.593535809243656232e+00 -5.556550002466121851e-01 -5.455343053023306021e-01 6.358515116860085081e-01 -1.238045903024471983e-01 -1.240526299772354957e+00 9.653289445577186711e-01 -3.175206000113775517e-02 2.638943270876669134e-01 -5.916851279275850972e-01 1.364697200193678128e+00 -8.758952225773646016e-02 -8.483979375931620659e-01 6.774414853540873249e-01 6.950269246299914938e-01 -9.730692500575786053e-01 -8.388296525440454010e-01 -5.559916227084774620e-01 -1.069910387294016774e+00 1.263784516132489211e+00 2.714997418732075785e-01 -1.105645137032626346e+00
-8.917712273313599391e-01 -1.517026384773359826e+00 -4.366833894871486876e-01 -1.211627465499822032e+00 -1.624922255931223969e+00 5.322739392305853023e-01 8.831096185920103148e-01 -4.056248041665532766e-01 -8.782910485163161196e-01 1.315246843070172256e+00 5.114899928800651363e-01 -9.987783967597620161e-02 1.323280600877294044e-01 1.247054818339061733e+00 -1.637387502627861702e+00 -9.900542165067074407e-01 3.696549002576746124e-01 8.196794817484928108e-01 7.179983226365459492e-01 -5.669812258385202863e-01 -1.514738878456311388e+00 -1.372522435085914871e+00 -2.457792983252800045e-01 -7.168697143559968898e-01 1.459317903372163716e-01 3.779357690581850587e-02 7.695346920883051889e-02 -1.610869238430985950e+00 -1.587815247013768805e-01 -3.659221717491644155e-01 -1.659074329538161585e+00 8.040851646562140465e-01 -1.226554602061391108e+00 6.739566789017695791e-01 -1.170993526166596466e+00 -1.903631702873322507e+00
-1.271039757502095968e+00 1.094167327141595925e+00 -5.149549584301182925e-01 3.285464330327588639e-02 -4.005348712565396929e-01 -8.372332710865633132e-01 -1.460147516350644326e+00 -1.035822587801822570e+00 2.213043571150722366e-01 8.630329895951996955e-01 -3.011109576925455420e-03 -1.302234292674196992e+00 -2.856221338127042098e-02 -9.394874819222381879e-01 2.670143524040405891e-01 -6.665582660964467498e-01 9.092400251671788336e-01 1.086866975782943445e+00 1.140406592312246614e+00 -3.040440332846681692e-01 -5.610873541047166624e-01 5.046614395963600758e-02 -8.813989702387674541e-01 1.030505752762296501e+00 9.209502405260752145e-01 -5.427695924672185646e-01 -6.566355740333257307e-01 -3.945830110104842081e-01 -6.573826844791847979e-01 1.247830028925712265e+00 -4.239986558222773594e-01 4.545683678057706456e-01 7.494164667832453608e-01 8.172675996014612532e-02 4.669169805498852299e-01 -2.345117506823974463e+00
1.084325455091611767e-01 8.334276849437555201e-01 -4.045939582438470156e-02 1.458892544176072947e+00 4.556384707289884428e-01 8.540108494827953756e-01 1.734943317884849456e+00 5.509458347300314474e-01 2.009379349680434287e-02 4.868382911427010518e-01 -1.721308963777788303e+00 1.530372213116020008e+00 9.038464577978426451e-02 1.282940129870537627e+00 2.064746283658827064e+00 -6.285090820004937129e-01 3.669710137551737694e-01 1.884517606386375277e-01 1.262132873260496391e+00 -1.622943213670724472e+00 -7.376983635353678848e-01 8.090694424554579767e-01 1.783388620779051470e+00 -5.703407564125015927e-01 -5.469761112186549701e-01 8.869192150136133435e-02 -4.937062057928192499e-02 -1.463486804116573170e+00 -5.486564987455284648e-01 1.336442573804851541e+00 -1.692392475067706181e+00 7.286782042895255662e-01 2.492364519453145466e-02 1.118149057125496171e+00 7.544175085521470647e-01 6.295046927166397799e-01
1.096172794954784369e+00 1.569809689607210235e+00 -1.243709267972559207e+00 4.506910570747189593e-01 -1.531789616037329660e+00 -2.035422882291143321e+00 -1.633724681468070594e+00 -8.497584487598979289e-03 -1.518632030087214035e+00 -2.444485215599421224e+00 1.220405588969704525e+00 -1.012368353046795955e+00 7.302781260211005376e-02 -2.844679651014204724e-01 2.093798139227371902e+00 -5.583756907163878180e-02 -2.262768840892266931e-01 8.704139326310544877e-01 1.451784937491986532e-02 -2.679902233121845612e+00 1.641990548399640870e+00 4.425667233704537740e-01 -1.149054157156337075e+00 -8.733778403136261970e-01 2.538128731026963791e+00 -7.742785550922138826e-01 9.629111823768325973e-01 6.822037874626529774e-01 -9.865446813339096011e-02 5.611581313808097216e-01 -1.088547661747814699e+00 -1.374638057148692472e+00 -6.838562977390287845e-01 -1.773396974724860797e+00 -3.572165896036448851e-01 -4.365597982328551785e-01
-1.271600639886002915e+00 5.226284148718443046e-01 1.413757009171770607e+00 -3.773587689869052353e-01 -6.606891844570017547e-01 1.480286233996551681e+00 1.280354830094354801e+00 -1.550573755743033910e+00 1.497128768980640512e+00 -3.924379338628420921e-01 2.063486962913912759e+00 -6.990255801851722461e-01 -2.837821416371645977e+00 -1.301940541059187995e+00 1.521210263950139918e+00 4.974276919050647783e-02 3.326421344313810757e-01 2.037880719992819500e-01 -2.220247844681066063e+00 1.095469674898363666e+00 -4.690298898572370923e-01 5.841658761105862352e-01 9.178302930756062628e-01 -1.353338120727202831e+00 7.073700029811394278e-03 5.785436233033875997e-01 -8.678324924302049936e-01 -1.189111556343700693e+00 -6.673593213918963540e-01 9.948908075018151331e-01 -3.536585303065581387e-01 -1.261195793446039104e-01 3.117065741505850029e-01 -1.243433796410426506e+00 1.400367483234344013e+00 -8.362015376903247921e-01
-6.559761475893340910e-01 2.054461815049883899e+00 5.569820088899546384e-02 -9.141110341982280896e-02 -2.686233113404908224e+00 -1.193105283874064781e+00 -9.852768735172547920e-01 5.912706502382450990e-01 -1.870764507371382168e-01 -1.164862499962556086e+00 1.875398180109185686e+00 5.301822751475754325e-01 -1.178051776616930724e+00 -8.148072295360582196e-01 8.540816498447502125e-01 3.037063598162088041e-01 -1.014146309039669180e+00 -2.502660409518983609e-01 3.706166262307226678e-01 2.058356708358205278e+00 -8.486888979610793804e-01 -2.540869255722806863e-01 -8.139160095243019866e-01 1.285258975335694887e+00 -8.274811459980013773e-01 3.684339226522413968e-01 -1.350883203490733875e+00 -1.390181938705358444e+00 9.088571240368359394e-01 1.484889674284209260e+00 -3.431576506870124277e-01 -2.934576880960581002e-01 1.664180170088968902e+00 2.568679634093870234e+00 -1.299721837531508939e+00 -1.743599018599896411e+00
1.405666951729416247e+00 -1.395714139670586551e+00 1.526247026936396800e+00 6.150888516185220450e-02 -1.173092589883111492e+00 -5.353749484965373284e-01 -5.419032798647382965e-01 3.223350915957781115e-01 4.925114265071480792e-03 2.838913229220553780e-01 4.179814873250666668e-02 1.165697672864183909e+00 3.242189001812493254e-01 2.654554015039168879e-01 -2.386269463146981351e-01 7.311176318219345660e-01 -5.854928799689219643e-01 -3.238904715233584253e-01 2.721783797232511515e-01 -1.025925721648861089e+00 6.433379831556415018e-01 -2.447671129759134701e-01 -1.515400109707418119e+00 -9.235862546000368489e-01 -2.302477464861147904e-01 -8.207018274399379143e-01 -2.966840877015248235e-01 2.529265667674694407e-01 7.407646661583164871e-01 1.950542626823273951e+00 2.069843547981709442e+00 1.783500298258688249e-02 -3.939579916916193802e-01 -7.553086531025886563e-01 6.425771918691201845e-02 1.321609962787279935e+00
7.988621284832158054e-01 -1.417060585940348172e-01 1.298009510256278087e+00 -1.224096103194365903e-01 -5.555141947300141353e-02 3.538403415517419326e-01 -9.845904270552547910e-01 1.420855152969081825e+00 -5.723728655776922913e-01 -2.253292779218560582e-01 -1.496790142429358372e+00 -1.024025937219896765e+00 -8.582420386484781449e-01 -4.277207382949329562e-01 -7.599089991190395299e-01 3.196259896993884908e-01 7.647391682051345452e-01 9.067897855327738954e-01 -8.117579500335972975e-01 -8.804807207777510802e-01 1.342050977576342508e+00 -4.880216747448567483e-01 -5.729655799874092681e-01 1.083137696291986973e+00 -5.431312822586913391e-01 -7.009817892718002430e-02 4.148019506793301781e-01 8.778020011331819639e-01 -1.090472610307236634e+00 -5.050012990822635439e-01 1.025670338580668028e+00 1.031830187187513070e+00 -1.148079814674196619e+00 -1.531301242418402930e+00 4.646644181637791249e-01 -1.862718454346007135e+00
-7.405241632566417209e-01 1.550895102327403130e+00 1.201501704721387176e+00 4.070612045147867786e-01 6.027834857316656247e-01 1.160149028463937304e+00 3.205161077670539149e-01 -2.351818479779916427e+00 1.618101304904306925e+00 1.176342361178838836e+00 -9.845146656904621985e-01 1.233177422981037497e+00 1.087679566103251894e+00 -2.276197114680151845e+00 -7.053462239020690250e-01 -9.533395656215080116e-01 -1.509898804922693349e+00 4.895970726778677284e-01 2.112044291016957676e+00 -1.941174114370209480e+00 -9.981636381586420637e-01 -1.278023106056312086e+00 -7.227406813562206045e-01 2.254313439219494952e-01 1.209283492258781179e+00 7.679462668133349990e-01 4.174477071744513434e-01 6.388364851531858069e-02 1.558230745956143304e+00 -6.574103089139047285e-01 -1.566657887120826542e+00 1.301309105761534024e+00 4.440418721541146141e-01 1.558056751405467288e+00 -6.498509541478358909e-01 3.476779769263000364e-01
7.031284693996938673e-01 2.782233792406663131e-01 6.091212389627922441e-01 3.638077232852516829e-01 -1.120111037386981145e+00 1.627559143695687549e+00 1.915375638775389078e+00 -1.394318628703415663e-01 2.222425325193955747e-01 9.983318250956213502e-01 6.770703445217771677e-01 -1.021608958305617376e+00 1.559911143466503169e+00 4.726661920466951883e-01 -2.287969965594603972e-01 1.748219068355260308e+00 2.166812300173644457e-01 -1.011440805258260189e+00 6.424889477354266132e-02 9.497879131382792883e-02 8.822152500264671682e-01 1.033977813797770873e+00 5.293662342631515888e-02 8.689209752589976965e-01 -3.369429325168569189e-01 -3.171276066691385287e-01 3.323673978407125640e-01 -4.412875317375366535e-01 2.941132035169443867e-02 -5.582360706434647685e-02 -1.692006410774237413e+00 9.738790838247105563e-01 -3.419208448492611629e-01 -1.284427372429443714e+00 -2.325362954482474709e-01 -2.552597255041521573e-01

# Layer 3 weights: shape (1, 21)
-1.632926509268356696e+00 -2.010921489894903935e+00 9.873721030695542522e-01 -1.863337815423421029e+00 8.065205164111634017e-01 1.331970602975702800e+00 1.464000507970734555e+00 -1.722070613831068187e+00 2.777512583060133822e-01 3.832761082012009490e-01 5.457765090093475990e-01 -1.307745954152902956e-01 -1.162122665085671969e+00 8.805105168328628551e-01 1.643379137538210077e+00 2.018639927639244380e+00 -1.844485463899490640e-01 7.849111297323116965e-01 7.849324027618906907e-01 9.215828961976371136e-01 6.873374477104630953e-02

